net { }
node n0 {
  states = ( "s0" "s1" );
}

node n1 {
  states = ( "s0" "s1" );
}

node n2 {
  states = ( "s0" "s1" );
}

node n3 {
  states = ( "s0" "s1" );
}

node n4 {
  states = ( "s0" "s1" );
}

node n5 {
  states = ( "s0" "s1" );
}

node n6 {
  states = ( "s0" "s1" "s2" "s3" "s4" "s5" "s6" "s7" );
}

node n7 {
  states = ( "s0" "s1" );
}

node n8 {
  states = ( "s0" "s1" );
}

node n9 {
  states = ( "s0" "s1" );
}

node n10 {
  states = ( "s0" "s1" );
}

node n11 {
  states = ( "s0" "s1" );
}

node n12 {
  states = ( "s0" "s1" );
}

node n13 {
  states = ( "s0" "s1" "s2" "s3" "s4" "s5" "s6" "s7" "s8" "s9" "s10" "s11" "s12" "s13" "s14" "s15" );
}

node n14 {
  states = ( "s0" "s1" "s2" "s3" "s4" "s5" "s6" "s7" "s8" "s9" "s10" "s11" "s12" "s13" "s14" "s15" );
}

node n15 {
  states = ( "s0" "s1" "s2" "s3" "s4" "s5" "s6" "s7" );
}

node n16 {
  states = ( "s0" "s1" "s2" "s3" "s4" "s5" "s6" "s7" "s8" "s9" "s10" "s11" "s12" "s13" "s14" "s15" );
}

node n17 {
  states = ( "s0" "s1" "s2" "s3" );
}

node n18 {
  states = ( "s0" "s1" "s2" "s3" );
}

node n19 {
  states = ( "s0" "s1" "s2" "s3" "s4" "s5" "s6" "s7" "s8" "s9" "s10" "s11" "s12" "s13" "s14" "s15" );
}

node n20 {
  states = ( "s0" "s1" "s2" "s3" );
}

node n21 {
  states = ( "s0" "s1" "s2" "s3" "s4" "s5" "s6" "s7" );
}

node n22 {
  states = ( "s0" "s1" "s2" "s3" );
}

potential ( n0 | n1 n5 n13 ) {
   data = ( 1.0 0.0 1.0 0.0 1.0 0.0 1.0 0.0 1.0 0.0 1.0 0.0 1.0 0.0 1.0 0.0 0.0 1.0 0.0 1.0 0.0 1.0 0.0 1.0 0.0 1.0 0.0 1.0 0.0 1.0 0.0 1.0 1.0 0.0 1.0 0.0 0.0 1.0 0.0 1.0 1.0 0.0 1.0 0.0 0.0 1.0 0.0 1.0 1.0 0.0 1.0 0.0 0.0 1.0 0.0 1.0 1.0 0.0 1.0 0.0 0.0 1.0 0.0 1.0 1.0 0.0 1.0 0.0 1.0 0.0 1.0 0.0 0.0 1.0 0.0 1.0 0.0 1.0 0.0 1.0 1.0 0.0 1.0 0.0 1.0 0.0 1.0 0.0 0.0 1.0 0.0 1.0 0.0 1.0 0.0 1.0 1.0 0.0 0.0 1.0 1.0 0.0 0.0 1.0 1.0 0.0 0.0 1.0 1.0 0.0 0.0 1.0 1.0 0.0 0.0 1.0 1.0 0.0 0.0 1.0 1.0 0.0 0.0 1.0 1.0 0.0 0.0 1.0  );
}
potential ( n1 | n6 ) {
   data = ( 1.0 0.0 0.0 1.0 0.0 1.0 0.0 1.0 0.0 1.0 1.0 0.0 1.0 0.0 1.0 0.0  );
}
potential ( n2 | n0 n1 n6 ) {
   data = ( 1.0 0.0 1.0 0.0 1.0 0.0 1.0 0.0 1.0 0.0 1.0 0.0 0.0 1.0 0.0 1.0 1.0 0.0 1.0 0.0 1.0 0.0 0.0 1.0 0.0 1.0 1.0 0.0 1.0 0.0 1.0 0.0 1.0 0.0 1.0 0.0 1.0 0.0 1.0 0.0 1.0 0.0 0.0 1.0 1.0 0.0 0.0 1.0 1.0 0.0 1.0 0.0 0.0 1.0 1.0 0.0 0.0 1.0 1.0 0.0 1.0 0.0 1.0 0.0  );
}
potential ( n3 | n1 n8 n14 ) {
   data = ( 1.0 0.0 1.0 0.0 1.0 0.0 1.0 0.0 1.0 0.0 1.0 0.0 1.0 0.0 1.0 0.0 0.0 1.0 0.0 1.0 0.0 1.0 0.0 1.0 0.0 1.0 0.0 1.0 0.0 1.0 0.0 1.0 1.0 0.0 1.0 0.0 0.0 1.0 0.0 1.0 1.0 0.0 1.0 0.0 0.0 1.0 0.0 1.0 1.0 0.0 1.0 0.0 0.0 1.0 0.0 1.0 1.0 0.0 1.0 0.0 0.0 1.0 0.0 1.0 1.0 0.0 1.0 0.0 1.0 0.0 1.0 0.0 0.0 1.0 0.0 1.0 0.0 1.0 0.0 1.0 1.0 0.0 1.0 0.0 1.0 0.0 1.0 0.0 0.0 1.0 0.0 1.0 0.0 1.0 0.0 1.0 1.0 0.0 0.0 1.0 1.0 0.0 0.0 1.0 1.0 0.0 0.0 1.0 1.0 0.0 0.0 1.0 1.0 0.0 0.0 1.0 1.0 0.0 0.0 1.0 1.0 0.0 0.0 1.0 1.0 0.0 0.0 1.0  );
}
potential ( n4 | n3 n8 n15 ) {
   data = ( 1.0 0.0 1.0 0.0 1.0 0.0 1.0 0.0 1.0 0.0 1.0 0.0 1.0 0.0 1.0 0.0 1.0 0.0 1.0 0.0 0.0 1.0 0.0 1.0 1.0 0.0 1.0 0.0 0.0 1.0 0.0 1.0 1.0 0.0 1.0 0.0 1.0 0.0 1.0 0.0 0.0 1.0 0.0 1.0 0.0 1.0 0.0 1.0 1.0 0.0 0.0 1.0 1.0 0.0 0.0 1.0 1.0 0.0 0.0 1.0 1.0 0.0 0.0 1.0  );
}
potential ( n5 | n1 n11 n16 ) {
   data = ( 1.0 0.0 1.0 0.0 1.0 0.0 1.0 0.0 1.0 0.0 1.0 0.0 1.0 0.0 1.0 0.0 0.0 1.0 0.0 1.0 0.0 1.0 0.0 1.0 0.0 1.0 0.0 1.0 0.0 1.0 0.0 1.0 1.0 0.0 1.0 0.0 0.0 1.0 0.0 1.0 1.0 0.0 1.0 0.0 0.0 1.0 0.0 1.0 1.0 0.0 1.0 0.0 0.0 1.0 0.0 1.0 1.0 0.0 1.0 0.0 0.0 1.0 0.0 1.0 1.0 0.0 1.0 0.0 1.0 0.0 1.0 0.0 0.0 1.0 0.0 1.0 0.0 1.0 0.0 1.0 1.0 0.0 1.0 0.0 1.0 0.0 1.0 0.0 0.0 1.0 0.0 1.0 0.0 1.0 0.0 1.0 1.0 0.0 0.0 1.0 1.0 0.0 0.0 1.0 1.0 0.0 0.0 1.0 1.0 0.0 0.0 1.0 1.0 0.0 0.0 1.0 1.0 0.0 0.0 1.0 1.0 0.0 0.0 1.0 1.0 0.0 0.0 1.0  );
}
potential ( n6 ) {
   data = ( 0.18826626758574852 0.0032975564517840413 0.04828539922355092 0.03311988682720391 0.08169383964097005 0.13491381058594892 0.49855948403083855 0.011863755653955086  );
}
potential ( n7 | n4 n17 ) {
   data = ( 1.0 0.0 1.0 0.0 0.0 1.0 0.0 1.0 1.0 0.0 0.0 1.0 1.0 0.0 0.0 1.0  );
}
potential ( n8 | n1 n18 ) {
   data = ( 1.0 0.0 1.0 0.0 0.0 1.0 0.0 1.0 1.0 0.0 0.0 1.0 1.0 0.0 0.0 1.0  );
}
potential ( n9 | n3 n4 n19 ) {
   data = ( 1.0 0.0 1.0 0.0 1.0 0.0 1.0 0.0 1.0 0.0 1.0 0.0 1.0 0.0 1.0 0.0 0.0 1.0 0.0 1.0 0.0 1.0 0.0 1.0 0.0 1.0 0.0 1.0 0.0 1.0 0.0 1.0 1.0 0.0 1.0 0.0 0.0 1.0 0.0 1.0 1.0 0.0 1.0 0.0 0.0 1.0 0.0 1.0 1.0 0.0 1.0 0.0 0.0 1.0 0.0 1.0 1.0 0.0 1.0 0.0 0.0 1.0 0.0 1.0 1.0 0.0 1.0 0.0 1.0 0.0 1.0 0.0 0.0 1.0 0.0 1.0 0.0 1.0 0.0 1.0 1.0 0.0 1.0 0.0 1.0 0.0 1.0 0.0 0.0 1.0 0.0 1.0 0.0 1.0 0.0 1.0 1.0 0.0 0.0 1.0 1.0 0.0 0.0 1.0 1.0 0.0 0.0 1.0 1.0 0.0 0.0 1.0 1.0 0.0 0.0 1.0 1.0 0.0 0.0 1.0 1.0 0.0 0.0 1.0 1.0 0.0 0.0 1.0  );
}
potential ( n10 | n3 n20 ) {
   data = ( 1.0 0.0 1.0 0.0 0.0 1.0 0.0 1.0 1.0 0.0 0.0 1.0 1.0 0.0 0.0 1.0  );
}
potential ( n11 | n1 n8 n21 ) {
   data = ( 1.0 0.0 1.0 0.0 1.0 0.0 1.0 0.0 0.0 1.0 0.0 1.0 0.0 1.0 0.0 1.0 1.0 0.0 1.0 0.0 0.0 1.0 0.0 1.0 1.0 0.0 1.0 0.0 0.0 1.0 0.0 1.0 0.0 1.0 0.0 1.0 0.0 1.0 0.0 1.0 0.0 1.0 0.0 1.0 0.0 1.0 0.0 1.0 1.0 0.0 0.0 1.0 1.0 0.0 0.0 1.0 1.0 0.0 0.0 1.0 1.0 0.0 0.0 1.0  );
}
potential ( n12 | n2 n22 ) {
   data = ( 1.0 0.0 1.0 0.0 0.0 1.0 0.0 1.0 1.0 0.0 0.0 1.0 1.0 0.0 0.0 1.0  );
}
potential ( n13 ) {
   data = ( 0.08520726937332972 0.035592350619873446 0.017787462679620652 0.051429230861856294 0.21736291588369827 0.18213887718925859 0.06097486022952714 0.0013607793849935183 0.0010103668050802526 0.002918638600723904 0.03504318420494873 0.025732816316049886 0.13026829078441574 0.04808554824444797 0.0744740625218276 0.030613346300348135  );
}
potential ( n14 ) {
   data = ( 0.07415550498267487 0.019215096160483565 6.727795233707253E-4 0.006157265191881193 0.10480757526827385 2.8041940199741063E-4 0.032497358467479115 0.07949425434345296 0.07505992374694273 0.021305807156540443 0.1263283863292998 0.23132141847734156 0.08791655620706122 0.007361416507143748 0.09344975364054789 0.039976484595508954  );
}
potential ( n15 ) {
   data = ( 0.09609968432544455 0.13546147089291524 0.11720059937764538 0.17768747368601556 0.13351303416877308 0.045358264257092176 0.01001072178779621 0.28466875150431786  );
}
potential ( n16 ) {
   data = ( 0.09761396474067066 0.01086966444579716 0.08372703657123266 0.1569487824418672 0.053551984987074606 0.038307422147069184 0.04361990145571592 0.10280138323671352 0.21788890883168585 0.015422554017191765 0.024109863175646597 0.0015647119852729256 0.01957729043089028 0.0011669913535164397 0.05423203426869936 0.0785975059109559  );
}
potential ( n17 ) {
   data = ( 0.019243712648516566 0.44819223898725413 0.12760199493886065 0.40496205342536873  );
}
potential ( n18 ) {
   data = ( 0.5181567106770543 0.21227496181925484 0.08806987086693993 0.18149845663675102  );
}
potential ( n19 ) {
   data = ( 0.03522836402554385 0.15917454319845956 0.04754547956173194 0.057868982213837704 0.002886454666797196 0.006934369065511059 0.07950882790140616 0.20088493038623978 0.15586165942095603 0.011318208266819505 0.05373710548234497 4.4668551156172483E-4 0.009264540676009883 0.02010586408878723 0.10900599607154288 0.05022798946245029  );
}
potential ( n20 ) {
   data = ( 0.341081814766961 0.3396696677734204 0.2616548356407215 0.057593681818897055  );
}
potential ( n21 ) {
   data = ( 0.04039273148272392 0.11678277012099453 0.0035426763330135293 0.17064800192940796 0.4873487350141309 0.07295295678556205 0.006810377806807727 0.10152175052735946  );
}
potential ( n22 ) {
   data = ( 0.12396020760573655 0.1259907967163548 0.21586665021060936 0.5341823454672993  );
}
