net
{
	node_size = (130.0 55.0);
}

node Death
{
	states = ("y" "n" );
	position = (211 -25);
	diagnosistype = "AUXILIARY";
	DSLxSUBMODEL = "Root Submodel";
	ismapvariable = "false";
	label = "Death";
	ID = "variable8";
	DSLxEXTRA_DEFINITIONxDIAGNOSIS_TYPE = "AUXILIARY";
	excludepolicy = "include whole CPT";
}
node Symptoms
{
	states = ("y" "n" );
	position = (691 273);
	diagnosistype = "AUXILIARY";
	DSLxSUBMODEL = "Root Submodel";
	ismapvariable = "false";
	label = "Symptoms";
	ID = "variable3";
	DSLxEXTRA_DEFINITIONxDIAGNOSIS_TYPE = "AUXILIARY";
	excludepolicy = "include whole CPT";
}
node PPreference
{
	states = ("y" "n" );
	position = (690 77);
	diagnosistype = "AUXILIARY";
	DSLxSUBMODEL = "Root Submodel";
	ismapvariable = "false";
	label = "PPreference";
	ID = "variable11";
	DSLxEXTRA_DEFINITIONxDIAGNOSIS_TYPE = "AUXILIARY";
	excludepolicy = "include whole CPT";
}
node FAwareness
{
	states = ("y" "n" );
	position = (1047 268);
	diagnosistype = "AUXILIARY";
	DSLxSUBMODEL = "Root Submodel";
	ismapvariable = "false";
	label = "FAwareness";
	ID = "variable16";
	DSLxEXTRA_DEFINITIONxDIAGNOSIS_TYPE = "AUXILIARY";
	excludepolicy = "include whole CPT";
}
node Age
{
	states = ("y" "n" );
	position = (583 372);
	diagnosistype = "AUXILIARY";
	DSLxSUBMODEL = "Root Submodel";
	ismapvariable = "false";
	label = "Age";
	ID = "variable0";
	DSLxEXTRA_DEFINITIONxDIAGNOSIS_TYPE = "AUXILIARY";
	excludepolicy = "include whole CPT";
}
node Practitioner
{
	states = ("y" "n" );
	position = (522 272);
	diagnosistype = "AUXILIARY";
	DSLxSUBMODEL = "Root Submodel";
	ismapvariable = "false";
	label = "Practitioner";
	ID = "variable6";
	DSLxEXTRA_DEFINITIONxDIAGNOSIS_TYPE = "AUXILIARY";
	excludepolicy = "include whole CPT";
}
node FSystem
{
	states = ("y" "n" );
	position = (1164 439);
	diagnosistype = "AUXILIARY";
	DSLxSUBMODEL = "Root Submodel";
	ismapvariable = "false";
	label = "FSystem";
	ID = "variable15";
	DSLxEXTRA_DEFINITIONxDIAGNOSIS_TYPE = "AUXILIARY";
	excludepolicy = "include whole CPT";
}
node Triangolo
{
	states = ("y" "n" );
	position = (522 173);
	diagnosistype = "AUXILIARY";
	DSLxSUBMODEL = "Root Submodel";
	ismapvariable = "false";
	label = "Triangolo";
	ID = "variable7";
	DSLxEXTRA_DEFINITIONxDIAGNOSIS_TYPE = "AUXILIARY";
	excludepolicy = "include whole CPT";
}
node Hospital
{
	states = ("y" "n" );
	position = (207 443);
	diagnosistype = "AUXILIARY";
	DSLxSUBMODEL = "Root Submodel";
	ismapvariable = "false";
	label = "Hospital";
	ID = "variable4";
	DSLxEXTRA_DEFINITIONxDIAGNOSIS_TYPE = "AUXILIARY";
	excludepolicy = "include whole CPT";
}
node PAwareness
{
	states = ("y" "n" );
	position = (690 173);
	diagnosistype = "AUXILIARY";
	DSLxSUBMODEL = "Root Submodel";
	ismapvariable = "false";
	label = "PAwareness";
	ID = "variable12";
	DSLxEXTRA_DEFINITIONxDIAGNOSIS_TYPE = "AUXILIARY";
	excludepolicy = "include whole CPT";
}
node Karnofsky
{
	states = ("y" "n" );
	position = (691 440);
	diagnosistype = "AUXILIARY";
	DSLxSUBMODEL = "Root Submodel";
	ismapvariable = "false";
	label = "Karnofsky";
	ID = "variable1";
	DSLxEXTRA_DEFINITIONxDIAGNOSIS_TYPE = "AUXILIARY";
	excludepolicy = "include whole CPT";
}
node FPreference
{
	states = ("y" "n" );
	position = (1168 -27);
	diagnosistype = "AUXILIARY";
	DSLxSUBMODEL = "Root Submodel";
	ismapvariable = "false";
	label = "FPreference";
	ID = "variable14";
	DSLxEXTRA_DEFINITIONxDIAGNOSIS_TYPE = "AUXILIARY";
	excludepolicy = "include whole CPT";
}
potential ( Death | Hospital Triangolo PPreference FPreference )
{
	data = (((((	0.59423855	0.40576145	)
		(	0.45633447	0.54366553	))
		((	0.31042919	0.68957081	)
		(	0.24415693	0.75584307	)))
		(((	0.43075545	0.56924455	)
		(	0.04957243	0.95042757	))
		((	0.31867761	0.68132239	)
		(	0.07121475	0.92878525	))))
		((((	0.64236539	0.35763461	)
		(	0.14425527	0.85574473	))
		((	0.28082518	0.71917482	)
		(	0.28227383	0.71772617	)))
		(((	0.32521654	0.67478346	)
		(	0.04765654	0.95234346	))
		((	0.16349559	0.83650441	)
		(	0.06439209	0.93560791	)))));
}
potential ( Symptoms | )
{
	data = (	0.63675214	0.36324786	);
}
potential ( PPreference | PAwareness )
{
	data = ((	0.79033854	0.20966146	)
		(	0.63657755	0.36342245	));
}
potential ( FAwareness | Symptoms )
{
	data = ((	0.75042216	0.24957784	)
		(	0.93242999	0.06757001	));
}
potential ( Age | )
{
	data = (	0.29487179	0.70512821	);
}
potential ( Practitioner | Hospital )
{
	data = ((	0.33651394	0.66348606	)
		(	0.34896719	0.65103281	));
}
potential ( FSystem | FAwareness Karnofsky Symptoms )
{
	data = ((((	0.38426195	0.61573805	)
		(	0.49115198	0.50884802	))
		((	0.32245761	0.67754239	)
		(	0.4375	0.5625	)))
		(((	0.04043497	0.95956503	)
		(	0.20785608	0.79214392	))
		((	0.19101455	0.80898545	)
		(	0.25	0.75	))));
}
potential ( Triangolo | Practitioner Symptoms )
{
	data = (((	0.43947951	0.56052049	)
		(	0.39473684	0.60526316	))
		((	0.22526752	0.77473248	)
		(	0.3	0.7	)));
}
potential ( Hospital | Karnofsky Symptoms )
{
	data = (((	0.32142857	0.67857143	)
		(	0.12857143	0.87142857	))
		((	0.33823529	0.66176471	)
		(	0.38888889	0.61111111	)));
}
potential ( PAwareness | Symptoms )
{
	data = ((	0.68242116	0.31757884	)
		(	0.73255814	0.26744186	));
}
potential ( Karnofsky | Age Symptoms )
{
	data = (((	0.72222222	0.27777778	)
		(	0.94444444	0.05555556	))
		((	0.45918367	0.54081633	)
		(	0.75714286	0.24285714	)));
}
potential ( FPreference | FSystem )
{
	data = ((	0.97221401	0.02778599	)
		(	0.20647214	0.79352786	));
}
